digraph Tree {
node [shape=box, style="filled, rounded", color="black", fontname=helvetica] ;
edge [fontname=helvetica] ;
0 [label="Site EUI (kBtu/ft²) <= 0.097\nfriedman_mse = 1.0\nsamples = 6622\nvalue = 0.02", fillcolor="#f8deca"] ;
1 [label="log_Water Use (All Water Sources) (kgal) <= 0.515\nfriedman_mse = 0.779\nsamples = 249\nvalue = 0.47", fillcolor="#f7dbc6"] ;
0 -> 1 [labeldistance=2.5, labelangle=45, headlabel="True"] ;
2 [label="Order <= 0.973\nfriedman_mse = 0.976\nsamples = 52\nvalue = -0.154", fillcolor="#f8dfcc"] ;
1 -> 2 ;
3 [label="Property Id <= 0.484\nfriedman_mse = 0.923\nsamples = 47\nvalue = -0.277", fillcolor="#f9e0ce"] ;
2 -> 3 ;
4 [label="DOF Gross Floor Area <= 0.0\nfriedman_mse = 0.306\nsamples = 12\nvalue = -0.833", fillcolor="#f9e3d3"] ;
3 -> 4 ;
5 [label="friedman_mse = 1.0\nsamples = 2\nvalue = -0.0", fillcolor="#f8decb"] ;
4 -> 5 ;
6 [label="friedman_mse = 0.0\nsamples = 10\nvalue = -0.029", fillcolor="#f8decb"] ;
4 -> 6 ;
7 [label="Order <= 0.732\nfriedman_mse = 0.993\nsamples = 35\nvalue = -0.086", fillcolor="#f8decc"] ;
3 -> 7 ;
8 [label="friedman_mse = 0.986\nsamples = 25\nvalue = 0.029", fillcolor="#f8ddca"] ;
7 -> 8 ;
9 [label="friedman_mse = 0.64\nsamples = 10\nvalue = -0.086", fillcolor="#f8decc"] ;
7 -> 9 ;
10 [label="friedman_mse = 0.0\nsamples = 5\nvalue = 0.569", fillcolor="#f7dac5"] ;
2 -> 10 ;
11 [label="Order <= 0.354\nfriedman_mse = 0.597\nsamples = 197\nvalue = 0.635", fillcolor="#f7d9c4"] ;
1 -> 11 ;
12 [label="Property Id <= 0.824\nfriedman_mse = 0.996\nsamples = 47\nvalue = 0.064", fillcolor="#f8ddca"] ;
11 -> 12 ;
13 [label="Property Id <= 0.471\nfriedman_mse = 0.931\nsamples = 38\nvalue = 0.263", fillcolor="#f8dcc8"] ;
12 -> 13 ;
14 [label="friedman_mse = 1.0\nsamples = 24\nvalue = -0.003", fillcolor="#f8decb"] ;
13 -> 14 ;
15 [label="friedman_mse = 0.49\nsamples = 14\nvalue = 0.003", fillcolor="#f8decb"] ;
13 -> 15 ;
16 [label="friedman_mse = 0.395\nsamples = 9\nvalue = -0.015", fillcolor="#f8decb"] ;
12 -> 16 ;
17 [label="Largest Property Use Type_Multifamily Housing <= 0.5\nfriedman_mse = 0.338\nsamples = 150\nvalue = 0.813", fillcolor="#f7d8c2"] ;
11 -> 17 ;
18 [label="Weather Normalized Site Electricity Intensity (kWh/ft²) <= 0.01\nfriedman_mse = 0.999\nsamples = 27\nvalue = 0.037", fillcolor="#f8ddca"] ;
17 -> 18 ;
19 [label="friedman_mse = 0.0\nsamples = 4\nvalue = -0.019", fillcolor="#f8decb"] ;
18 -> 19 ;
20 [label="friedman_mse = 0.953\nsamples = 23\nvalue = 0.003", fillcolor="#f8decb"] ;
18 -> 20 ;
21 [label="Site EUI (kBtu/ft²) <= 0.094\nfriedman_mse = 0.032\nsamples = 123\nvalue = 0.984", fillcolor="#f7d7c0"] ;
17 -> 21 ;
22 [label="friedman_mse = 0.0\nsamples = 118\nvalue = 0.001", fillcolor="#f8decb"] ;
21 -> 22 ;
23 [label="friedman_mse = 0.64\nsamples = 5\nvalue = 0.103", fillcolor="#f8ddca"] ;
21 -> 23 ;
24 [label="DOF Gross Floor Area <= 0.036\nfriedman_mse = 1.0\nsamples = 6373\nvalue = 0.003", fillcolor="#f8decb"] ;
0 -> 24 [labeldistance=2.5, labelangle=-45, headlabel="False"] ;
25 [label="DOF Gross Floor Area <= 0.035\nfriedman_mse = 1.0\nsamples = 6096\nvalue = -0.003", fillcolor="#f8decb"] ;
24 -> 25 ;
26 [label="log_Direct GHG Emissions (Metric Tons CO2e) <= 0.737\nfriedman_mse = 1.0\nsamples = 6082\nvalue = -0.001", fillcolor="#f8decb"] ;
25 -> 26 ;
27 [label="DOF Gross Floor Area <= 0.026\nfriedman_mse = 1.0\nsamples = 6043\nvalue = -0.004", fillcolor="#f8decb"] ;
26 -> 27 ;
28 [label="friedman_mse = 1.0\nsamples = 5906\nvalue = 0.001", fillcolor="#f8decb"] ;
27 -> 28 ;
29 [label="friedman_mse = 0.961\nsamples = 137\nvalue = -0.863", fillcolor="#f9e3d4"] ;
27 -> 29 ;
30 [label="Year Built <= 0.854\nfriedman_mse = 0.81\nsamples = 39\nvalue = 0.436", fillcolor="#f8dbc6"] ;
26 -> 30 ;
31 [label="friedman_mse = 0.0\nsamples = 12\nvalue = 8.009", fillcolor="#eda977"] ;
30 -> 31 ;
32 [label="friedman_mse = 0.966\nsamples = 27\nvalue = 1.198", fillcolor="#f6d6be"] ;
30 -> 32 ;
33 [label="Year Built <= 0.857\nfriedman_mse = 0.49\nsamples = 14\nvalue = -0.714", fillcolor="#f9e2d2"] ;
25 -> 33 ;
34 [label="friedman_mse = 0.889\nsamples = 3\nvalue = 3.277", fillcolor="#f4c8a9"] ;
33 -> 34 ;
35 [label="friedman_mse = 0.0\nsamples = 11\nvalue = -5.036", fillcolor="#ffffff"] ;
33 -> 35 ;
36 [label="Weather Normalized Site Electricity Intensity (kWh/ft²) <= 0.091\nfriedman_mse = 0.986\nsamples = 277\nvalue = 0.119", fillcolor="#f8ddc9"] ;
24 -> 36 ;
37 [label="Order <= 0.86\nfriedman_mse = 0.902\nsamples = 32\nvalue = -0.312", fillcolor="#f9e0ce"] ;
36 -> 37 ;
38 [label="Weather Normalized Site Electricity Intensity (kWh/ft²) <= 0.075\nfriedman_mse = 0.799\nsamples = 29\nvalue = -0.448", fillcolor="#f9e1cf"] ;
37 -> 38 ;
39 [label="friedman_mse = 0.96\nsamples = 20\nvalue = -0.382", fillcolor="#f9e0cf"] ;
38 -> 39 ;
40 [label="friedman_mse = 0.0\nsamples = 9\nvalue = -4.565", fillcolor="#fefcfa"] ;
38 -> 40 ;
41 [label="friedman_mse = 0.0\nsamples = 3\nvalue = 14.003", fillcolor="#e58139"] ;
37 -> 41 ;
42 [label="log_Water Use (All Water Sources) (kgal) <= 0.66\nfriedman_mse = 0.969\nsamples = 245\nvalue = 0.176", fillcolor="#f8ddc9"] ;
36 -> 42 ;
43 [label="log_Water Use (All Water Sources) (kgal) <= 0.559\nfriedman_mse = 0.919\nsamples = 165\nvalue = 0.285", fillcolor="#f8dcc8"] ;
42 -> 43 ;
44 [label="friedman_mse = 0.981\nsamples = 116\nvalue = 0.364", fillcolor="#f8dbc7"] ;
43 -> 44 ;
45 [label="friedman_mse = 0.6\nsamples = 49\nvalue = 2.941", fillcolor="#f4caac"] ;
43 -> 45 ;
46 [label="Order <= 0.243\nfriedman_mse = 0.998\nsamples = 80\nvalue = -0.05", fillcolor="#f8decb"] ;
42 -> 46 ;
47 [label="friedman_mse = 0.951\nsamples = 54\nvalue = -0.626", fillcolor="#f9e2d1"] ;
46 -> 47 ;
48 [label="friedman_mse = 0.905\nsamples = 26\nvalue = 2.015", fillcolor="#f5d0b6"] ;
46 -> 48 ;
}